{
  "robot_type": "SimpleLogistic",
  "label_ranges": [
    [
      -1.7976931348623157e308,
      -0.00019622272033392252,
      0
    ],
    [
      -0.00019622272033392252,
      3.8503354662965724e-8,
      1
    ],
    [
      0.00009813061184446302,
      0.00029439183553304853,
      2
    ],
    [
      0.00029439183553304853,
      0.000490653059221634,
      3
    ],
    [
      0.000490653059221634,
      1.7976931348623157e308,
      4
    ]
  ],
  "layers": [
    {
      "bias": [
        -0.06347622,
        0.01001889,
        -0.12169159,
        -0.09187647,
        0.03462395,
        -0.086764924,
        -0.0891154,
        -0.0038739264,
        -0.011407242,
        -0.039981104,
        -0.082102664,
        -0.08256563,
        -0.11078083,
        0.024074752,
        0.088910535,
        0.096846126,
        0.017743025,
        0.012731984,
        -0.008387828,
        0.040171716,
        0.01016666,
        0.063908026,
        -0.076396726,
        0.06746436,
        -0.094556615,
        -0.093866214,
        0.06589639,
        -0.05684234,
        0.037612572,
        0.05997233,
        -0.008450024,
        0.06261273,
        -0.07872125,
        -0.06229945,
        -0.06278938,
        -0.09166854,
        -0.00637122,
        0.022676483,
        -0.07886187,
        -0.070992544,
        -0.010397769,
        -0.05943386,
        -0.08048943,
        -0.0042149895,
        -0.085744545,
        -0.067755304,
        0.04176654,
        -0.033460297,
        -0.058689725,
        0.06615428,
        -0.06973614,
        0.092673376,
        0.07535591,
        0.06009978,
        0.039033975,
        0.04694149,
        0.09639599,
        0.051560596,
        -0.076564714,
        -0.1111503
      ],
      "weights": [
        [
          -0.017590405,
          0.033419043,
          -0.13690826,
          -0.13255526,
          0.07312065,
          0.014700904,
          0.087425016,
          0.013761778,
          0.09103276,
          0.11606197,
          -0.037000053,
          0.025813878,
          0.1188328,
          0.027927965,
          0.015765356,
          -0.017161734,
          -0.029163586,
          0.012469701,
          -0.022381883,
          0.055839844,
          -0.019708758,
          -0.035699084,
          0.081574604,
          0.07357963,
          0.0032125646,
          0.092855155,
          -0.040448,
          -0.02062079,
          -0.13608994,
          -0.013028986,
          0.023065083,
          0.038940426,
          -0.15166679,
          0.060602114,
          -0.04372859,
          0.027341489,
          0.03867747,
          0.0045245113,
          -0.009805633,
          0.074410126,
          -0.0018820819,
          0.007815615,
          -0.08817807,
          0.10302541,
          -0.09856402,
          0.16720578,
          0.034373526,
          0.017561683,
          0.033963405,
          -0.023343185,
          0.061111525,
          0.011805921,
          -0.02758142,
          -0.06188444,
          -0.09644949,
          -0.1189074,
          -0.04353636,
          0.027118575,
          0.08192798,
          -0.024510507,
          -0.068580434,
          -0.070425585,
          -0.047935504,
          -0.08514528,
          0.031472925,
          0.00405136,
          0.080146566,
          0.063806616,
          -0.03353802,
          0.056663748,
          0.02969473,
          0.01787268,
          0.06490362,
          0.0727619,
          -0.006391472,
          0.039259538,
          0.061781876,
          0.037478916,
          -0.032765947,
          0.002735563,
          0.0076235305,
          -0.07699952,
          0.008400122,
          -0.04808432,
          0.04079171,
          0.02739916,
          -0.07797757,
          -0.016357748,
          -0.009387862,
          0.028826946,
          -0.082877934,
          0.022519404,
          0.031102832,
          0.07020262,
          -0.08743631,
          -0.08164875,
          -0.08040848,
          0.08638729,
          0.068490334,
          0.016564108,
          0.07216674,
          0.062211625,
          -0.0659976,
          -0.08324666,
          0.010243589,
          -0.03944358,
          0.06068602,
          0.00509041,
          -0.08921043,
          -0.012314267,
          -0.08346067,
          0.09105766,
          0.052962948,
          0.029843643,
          0.009472232,
          -0.047710285,
          -0.02530058,
          0.03439486,
          0.041951682,
          -0.04601721
        ],
        [
          0.08518493,
          0.05887584,
          0.110251985,
          0.02872425,
          0.13369635,
          -0.02428845,
          0.06136058,
          0.004517819,
          -0.08759203,
          -0.09870878,
          0.102263406,
          0.006250214,
          -0.03909356,
          -0.040337894,
          0.035303533,
          -0.060080852,
          0.083038144,
          0.037462745,
          -0.02241234,
          0.017220462,
          0.021223411,
          0.011859663,
          0.042120345,
          0.03972232,
          0.02396743,
          -0.029539036,
          -0.047858328,
          0.001517179,
          -0.10345529,
          -0.010918589,
          0.020773869,
          -0.12621152,
          -0.0779604,
          -0.018563729,
          0.07624921,
          0.043466724,
          -0.08934687,
          -0.08629907,
          -0.04019693,
          0.050027125,
          -0.099362545,
          -0.030022671,
          -0.13320304,
          0.06902176,
          -0.04039325,
          0.009808138,
          0.09202531,
          0.043923855,
          -0.0018966624,
          -0.07979232,
          0.057112098,
          -0.0749784,
          0.012343764,
          0.1097239,
          0.0816249,
          -0.13072518,
          -0.08677063,
          0.15295307,
          -0.027215922,
          0.11637365,
          -0.034616575,
          0.0044245347,
          -0.07218652,
          0.02641401,
          0.03766128,
          0.009156407,
          0.03433751,
          0.03124971,
          -0.005622248,
          -0.046245195,
          0.029376436,
          0.06537461,
          -0.082419895,
          -0.055527236,
          0.04830856,
          -0.043102045,
          0.024886237,
          -0.03346252,
          0.07920654,
          -0.012151109,
          0.010505514,
          -0.07724158,
          0.04551927,
          -0.056692727,
          0.010921641,
          0.08719559,
          -0.045109738,
          -0.04122922,
          0.000007443472,
          0.05106368,
          -0.08779785,
          -0.041990098,
          0.07935026,
          0.025355296,
          -0.084552765,
          0.0018378956,
          0.08706787,
          0.018155761,
          -0.06211721,
          0.08475008,
          0.0036226858,
          -0.08534324,
          -0.026138537,
          0.03712839,
          -0.020618157,
          -0.016089784,
          0.0015827499,
          0.020966748,
          0.057154167,
          0.010840938,
          -0.07905327,
          0.054326802,
          -0.05547906,
          -0.03679908,
          -0.04163691,
          0.003738571,
          -0.051366627,
          -0.082919724,
          0.012647014,
          -0.07884731
        ],
        [
          0.10297603,
          0.011316632,
          0.059867464,
          -0.0336828,
          0.100044444,
          0.12214838,
          0.11125706,
          -0.030582573,
          0.06395819,
          -0.050829485,
          0.050973017,
          0.10462766,
          0.10290018,
          0.12294,
          0.0652466,
          0.10998567,
          -0.010429823,
          0.052093722,
          0.004709559,
          -0.026498266,
          -0.015695162,
          0.018212024,
          0.0030836938,
          0.092518434,
          -0.036993198,
          0.04949847,
          0.08627222,
          -0.02525554,
          0.08517347,
          0.03979146,
          -0.05134756,
          -0.0949207,
          -0.10692886,
          -0.047957037,
          -0.009545439,
          0.05340234,
          -0.040769562,
          -0.06777763,
          0.04582331,
          -0.1075067,
          -0.07567741,
          -0.010890844,
          -0.09379891,
          -0.026263896,
          -0.07748867,
          -0.120456494,
          0.06017554,
          -0.081292376,
          -0.11299127,
          0.042688746,
          -0.026368717,
          -0.09146814,
          -0.004664786,
          -0.0121259345,
          0.059201606,
          -0.041385394,
          0.0088942405,
          0.053847507,
          -0.08847582,
          -0.08387187,
          -0.043819066,
          -0.06359584,
          -0.0065703876,
          -0.05595184,
          0.03714472,
          -0.012608143,
          0.021033674,
          0.051720183,
          0.013867471,
          -0.05679315,
          0.054418486,
          0.056591023,
          -0.041224323,
          0.04991711,
          -0.09060821,
          -0.05968173,
          -0.029485334,
          -0.04806643,
          -0.07137077,
          0.077245176,
          -0.09089144,
          -0.07874199,
          -0.04883256,
          0.06481676,
          -0.043711867,
          -0.081068866,
          -0.03212225,
          -0.055153113,
          -0.07929311,
          -0.040529087,
          0.016153445,
          0.049922235,
          0.08252508,
          -0.055414494,
          0.017299576,
          0.025571417,
          -0.051608674,
          -0.07227443,
          0.08712536,
          0.07073422,
          0.008564542,
          0.007673458,
          0.051907543,
          -0.02601314,
          0.053358268,
          -0.015587197,
          0.058146317,
          -0.052375033,
          -0.020912882,
          -0.024244564,
          0.019786065,
          -0.048403084,
          -0.0027886578,
          0.047039468,
          -0.016940994,
          0.035923917,
          -0.070420876,
          0.020587437,
          -0.015907789,
          0.07284452
        ],
        [
          -0.0016055839,
          0.031857174,
          0.09977671,
          -0.022690414,
          0.007096564,
          0.023168579,
          -0.053630672,
          -0.059397176,
          -0.05359932,
          0.00137365,
          -0.038449347,
          -0.071134806,
          -0.037877847,
          -0.052380763,
          0.013353671,
          -0.03153253,
          -0.0052768146,
          -0.007895568,
          0.082331195,
          -0.10627165,
          0.051778387,
          0.019817743,
          0.009757065,
          -0.028513603,
          -0.07927369,
          -0.028168514,
          -0.056606997,
          0.0549058,
          -0.08351385,
          0.026815731,
          0.043882698,
          0.1578493,
          -0.039733008,
          0.015202195,
          -0.0034715114,
          0.021431183,
          0.026867252,
          -0.09443486,
          -0.098354034,
          -0.11018297,
          -0.095889665,
          0.011279726,
          -0.06702799,
          -0.04521664,
          0.10330048,
          -0.01978302,
          0.06198801,
          0.053163845,
          -0.064509384,
          -0.096549734,
          -0.10095735,
          -0.06272162,
          0.019053241,
          0.10718925,
          -0.013105697,
          -0.036293257,
          -0.07686493,
          0.12594713,
          -0.08397762,
          -0.07397261,
          0.028689863,
          -0.038231794,
          0.0683209,
          0.060704064,
          0.064230524,
          0.04758503,
          -0.06522092,
          -0.07617427,
          0.028006718,
          0.018541384,
          0.032613724,
          0.03788304,
          -0.049953796,
          0.06601484,
          0.06507663,
          0.022310654,
          -0.08012284,
          -0.08784803,
          0.027755456,
          0.04983422,
          -0.030506581,
          0.083854154,
          -0.013037089,
          0.071658865,
          -0.0590589,
          -0.072341494,
          -0.049786806,
          -0.08687122,
          -0.050569274,
          -0.0099977255,
          -0.07758033,
          0.056362595,
          -0.060306206,
          -0.047863692,
          0.07819436,
          0.0029043471,
          -0.06038447,
          0.014722666,
          -0.07615832,
          -0.03244874,
          -0.031626586,
          -0.017558694,
          0.060351815,
          -0.059901856,
          0.040489867,
          0.08735928,
          -0.03216218,
          0.08683162,
          0.058465004,
          -0.02322618,
          0.06889996,
          -0.020819653,
          -0.053651623,
          0.07934078,
          0.057792664,
          0.06363981,
          0.049531605,
          0.06272444,
          -0.017831577,
          0.002561686
        ],
        [
          0.017981997,
          -0.036746003,
          0.007065591,
          -0.006837713,
          -0.09971868,
          0.081134215,
          0.017686121,
          0.030831084,
          0.022080446,
          0.039373826,
          0.00762051,
          0.04480049,
          -0.021186097,
          -0.019356148,
          0.017608233,
          -0.071547695,
          0.009539859,
          0.0075568133,
          -0.05753043,
          0.020159423,
          -0.08372793,
          0.111001566,
          0.005264552,
          -0.06459049,
          -0.023282668,
          0.05487776,
          0.035567228,
          0.08310295,
          0.08752901,
          -0.009025624,
          -0.07944638,
          -0.10001374,
          -0.008706734,
          0.008359398,
          0.039707925,
          -0.06466717,
          -0.038146887,
          -0.003479233,
          0.054703873,
          0.06526775,
          0.023233829,
          0.0035834517,
          -0.043458175,
          -0.034788698,
          0.09914392,
          -0.037485395,
          -0.020698002,
          -0.10771564,
          -0.0698451,
          0.05278766,
          -0.105916895,
          -0.000632698,
          -0.055851202,
          -0.05933914,
          -0.0452007,
          0.014042069,
          0.04411439,
          0.061972566,
          -0.032835364,
          -0.04189007,
          0.050138,
          -0.037301436,
          -0.0670278,
          0.057484727,
          0.055877656,
          0.072892815,
          -0.05409226,
          -0.082505696,
          0.05723946,
          0.05912361,
          0.030792644,
          -0.05767732,
          -0.07426971,
          0.07382311,
          -0.0059499242,
          -0.024323689,
          -0.0023915637,
          -0.0071314448,
          -0.029571762,
          -0.07096231,
          0.07788648,
          -0.05772565,
          0.035383526,
          -0.010138902,
          0.05980225,
          0.07309015,
          -0.0107185235,
          0.04396811,
          -0.08556311,
          -0.08774095,
          0.05748074,
          -0.02357917,
          -0.09042011,
          -0.068846494,
          -0.08645313,
          -0.07310239,
          -0.005247713,
          -0.03859451,
          -0.012145146,
          -0.031856406,
          0.072818965,
          -0.03193838,
          -0.0454756,
          -0.08660238,
          0.0046474035,
          0.037022665,
          0.07049215,
          -0.029655196,
          -0.01821804,
          -0.056581315,
          -0.039320968,
          -0.05016502,
          -0.07920654,
          0.041323308,
          -0.06207375,
          0.04140734,
          -0.0025075579,
          -0.020578057,
          0.043237094,
          -0.09108542
        ],
        [
          -0.031027114,
          0.0880948,
          -0.02843206,
          -0.007999798,
          0.024425484,
          -0.009427894,
          0.0073749432,
          0.10147776,
          -0.030808648,
          -0.06121707,
          -0.044963878,
          -0.008896619,
          0.042553835,
          0.006751463,
          0.093433276,
          -0.019088,
          0.005719494,
          -0.045059822,
          0.052575327,
          -0.07198651,
          0.07201082,
          0.059705324,
          -0.057914082,
          0.065497585,
          0.06505994,
          -0.11770865,
          0.013907046,
          -0.068730734,
          0.16702525,
          0.06651259,
          -0.015123964,
          0.014170461,
          -0.03171895,
          -0.08717893,
          0.027171327,
          -0.035913248,
          -0.037163347,
          0.046474393,
          -0.1181717,
          -0.085311845,
          -0.058185104,
          0.0942102,
          -0.10416006,
          -0.0782925,
          -0.075102895,
          -0.050403636,
          -0.0990365,
          0.057873316,
          -0.016173253,
          -0.020985693,
          0.056829974,
          0.011935561,
          -0.067091055,
          0.06373976,
          0.022085631,
          -0.11160188,
          -0.06153608,
          0.028071739,
          -0.007313872,
          0.0053328886,
          0.052622575,
          0.0051182033,
          0.07037542,
          -0.024880111,
          -0.076257296,
          -0.040366147,
          0.06364456,
          -0.0063692727,
          0.036963098,
          0.042334314,
          -0.02014444,
          0.037992038,
          -0.07392367,
          0.07906842,
          0.06403677,
          -0.014289877,
          0.0015165748,
          -0.06997599,
          0.034271814,
          0.051424652,
          0.041473284,
          -0.04827008,
          0.04502788,
          0.013802472,
          -0.049514458,
          0.043947816,
          0.072004795,
          0.075601876,
          -0.02284605,
          -0.0632239,
          -0.07207389,
          0.03624342,
          -0.05213267,
          0.008999963,
          0.012450284,
          -0.054889917,
          -0.05118089,
          0.012183713,
          0.0024409802,
          0.07502333,
          -0.025560394,
          0.07390556,
          -0.029559834,
          0.0056947893,
          0.016561225,
          -0.009918841,
          -0.05588668,
          0.020593127,
          0.030349974,
          -0.047886197,
          0.049335834,
          0.027559716,
          -0.08026302,
          -0.089489624,
          0.01295693,
          0.01579148,
          0.086489394,
          -0.08038828,
          0.056678787,
          -0.07960093
        ],
        [
          0.09292843,
          0.030342698,
          0.0024050332,
          0.074956566,
          -0.008580642,
          0.011177451,
          0.06749465,
          -0.031259228,
          -0.0019519649,
          0.1271682,
          -0.046167217,
          -0.06108891,
          -0.19792253,
          -0.08880707,
          0.030620052,
          -0.053572368,
          -0.059140045,
          -0.051797852,
          0.03144421,
          0.17385978,
          -0.054352608,
          0.0038092092,
          -0.05232218,
          -0.0075791855,
          0.026153833,
          0.012304989,
          -0.029165551,
          0.14010291,
          0.16577363,
          0.0206922,
          0.20800099,
          -0.104135774,
          0.16067627,
          -0.029378805,
          0.17430383,
          -0.018213969,
          -0.027233081,
          -0.012039155,
          -0.10722355,
          -0.16777284,
          0.0926137,
          0.15072101,
          0.07979195,
          -0.12855496,
          0.15022805,
          0.0030903083,
          -0.09939713,
          -0.028679758,
          0.15510422,
          -0.099185035,
          0.04691197,
          -0.08409875,
          -0.04796299,
          0.11575621,
          0.10123343,
          -0.019295327,
          0.054727376,
          0.030445587,
          0.014401237,
          -0.10687297,
          -0.032247484,
          0.051960215,
          -0.07191836,
          -0.050833244,
          -0.020541828,
          0.0841423,
          -0.049230177,
          -0.018796215,
          0.06453785,
          0.038632993,
          -0.015562973,
          -0.039355826,
          0.05122158,
          -0.03818339,
          0.028396117,
          -0.07468721,
          0.07328745,
          0.038257945,
          -0.06616534,
          -0.08213624,
          -0.014993035,
          0.027056532,
          -0.0036230448,
          -0.06634389,
          0.07985923,
          -0.07053564,
          0.022032732,
          -0.048957054,
          -0.075614564,
          0.071942575,
          -0.054338984,
          -0.022871198,
          0.047491163,
          0.08897929,
          0.0019925435,
          0.048862934,
          0.053780653,
          0.055470247,
          0.031453665,
          -0.033600237,
          -0.03263685,
          -0.008709221,
          -0.049138624,
          -0.06742966,
          0.04241024,
          -0.07090133,
          -0.031623136,
          0.08304359,
          0.05870671,
          -0.07293825,
          0.08481937,
          -0.04662949,
          0.0018557098,
          -0.033208866,
          0.07194234,
          0.046967484,
          -0.017142186,
          -0.008464229,
          0.027026083,
          -0.06725954
        ],
        [
          0.061521836,
          -0.003116139,
          -0.07128524,
          -0.07568299,
          0.12480245,
          -0.014900688,
          0.026580757,
          -0.05409172,
          0.028114175,
          -0.02068557,
          0.06845078,
          0.18227421,
          0.014211227,
          -0.10784163,
          -0.0077052936,
          -0.071207926,
          0.03575788,
          0.050743315,
          0.18000783,
          -0.12273011,
          -0.11408962,
          0.15817222,
          -0.108421855,
          -0.022564888,
          -0.021559319,
          -0.17312387,
          0.16755317,
          0.050080687,
          0.14009103,
          -0.027174817,
          -0.21383654,
          0.07967391,
          -0.11148203,
          0.2482206,
          -0.037008658,
          -0.17572293,
          0.13352276,
          0.0065332544,
          0.1456074,
          -0.07701176,
          -0.012545723,
          -0.17066397,
          0.014975703,
          0.027957251,
          -0.004092408,
          -0.04099347,
          -0.007091487,
          -0.046677392,
          -0.06856531,
          0.07191767,
          -0.17482731,
          0.0033781894,
          0.0052733305,
          0.00007661685,
          0.16557245,
          0.0034984832,
          -0.12425924,
          -0.01426351,
          -0.06692691,
          0.05349159,
          -0.061964348,
          0.060132764,
          0.08263634,
          -0.091098644,
          0.0659506,
          0.025708055,
          0.0461725,
          -0.08709063,
          -0.027586771,
          0.05671163,
          -0.014442622,
          -0.019972784,
          0.030312257,
          0.010677988,
          0.06424251,
          -0.082948305,
          0.0825374,
          0.079552196,
          0.07553893,
          -0.0350512,
          -0.03759319,
          -0.03023016,
          0.034114216,
          -0.0608609,
          0.036493246,
          0.08239719,
          -0.027890919,
          0.010302299,
          -0.07550162,
          -0.07023246,
          0.0753795,
          -0.07711851,
          -0.07077753,
          -0.06877779,
          -0.081669115,
          0.08777264,
          0.088913165,
          -0.01384672,
          0.019203734,
          -0.07130129,
          -0.07992332,
          -0.08176726,
          0.01949724,
          -0.028538458,
          -0.0032508494,
          -0.07135009,
          0.029208075,
          -0.074543275,
          0.04910673,
          0.049228165,
          0.045790054,
          -0.0635964,
          -0.026738813,
          0.074171185,
          -0.053924453,
          0.08142307,
          0.03295085,
          -0.012577313,
          -0.029181447,
          -0.05455916
        ],
        [
          -0.0946235,
          0.11962993,
          -0.07166803,
          0.062387012,
          -0.006467246,
          -0.0036429993,
          -0.0796703,
          0.027120784,
          -0.05468426,
          -0.016692365,
          -0.04248906,
          -0.029631589,
          -0.018406868,
          0.022751698,
          0.12893176,
          0.0880175,
          0.038348448,
          -0.031250916,
          -0.06589913,
          -0.09859002,
          -0.020227114,
          -0.0636685,
          -0.003975343,
          -0.027578738,
          0.04516076,
          0.0013786859,
          -0.025685547,
          -0.04177634,
          -0.04415896,
          0.014611837,
          0.041470863,
          0.014895459,
          0.015937192,
          0.020773856,
          -0.032950073,
          0.0636573,
          0.03223503,
          -0.08054396,
          -0.08083661,
          0.008198567,
          -0.042367056,
          -0.03907672,
          -0.0744675,
          -0.100830935,
          0.008581744,
          -0.062228967,
          0.020961955,
          -0.060588714,
          -0.05896806,
          -0.008207667,
          0.0054870085,
          0.06473534,
          -0.05746329,
          -0.1252726,
          0.05615855,
          0.0254437,
          0.059189193,
          0.0056238626,
          0.011289938,
          -0.064446114,
          0.015918747,
          -0.04144732,
          0.08649762,
          -0.0015431929,
          0.0010279501,
          0.054327935,
          -0.025712887,
          0.019418463,
          -0.07524332,
          -0.05635576,
          0.030851342,
          -0.08417722,
          0.071553774,
          0.055744827,
          -0.009223561,
          -0.023397107,
          -0.07477468,
          -0.0009317834,
          0.057433527,
          0.021239154,
          -0.051429857,
          0.064789034,
          -0.0347793,
          0.04052815,
          -0.08110139,
          -0.077385664,
          0.065734096,
          0.022037912,
          -0.08644294,
          -0.08366427,
          -0.091820486,
          0.006007504,
          -0.07481123,
          0.05493881,
          -0.006969125,
          0.0069531715,
          -0.020864367,
          0.07074781,
          0.021329954,
          -0.038903665,
          -0.022334531,
          -0.050274268,
          -0.08669714,
          0.010986989,
          -0.048754644,
          0.0826035,
          -0.07050036,
          -0.08418448,
          0.0849414,
          -0.08114055,
          0.03082219,
          -0.024867214,
          -0.009613418,
          -0.0652506,
          0.05886336,
          0.04986442,
          -0.012876978,
          0.07389589,
          -0.048762783,
          -0.023000916
        ],
        [
          0.07261173,
          0.014807017,
          0.055902008,
          -0.07080157,
          0.078936934,
          0.09920565,
          -0.07313432,
          -0.04451204,
          -0.06009361,
          0.023907237,
          -0.040939614,
          0.07424472,
          0.05973094,
          0.045578923,
          -0.0381948,
          0.042894606,
          -0.073528305,
          0.013937414,
          -0.07521353,
          -0.013240594,
          -0.08858637,
          0.110681735,
          0.04494667,
          -0.0069561326,
          -0.05276928,
          0.10835719,
          -0.06854653,
          0.09786501,
          -0.0042855134,
          0.07308976,
          -0.044041805,
          0.07000609,
          0.028260069,
          -0.034995705,
          0.010271457,
          0.043083083,
          0.046801623,
          -0.11543144,
          -0.058864944,
          0.048102405,
          -0.03111417,
          -0.09732467,
          -0.04562488,
          0.076446995,
          -0.103500694,
          -0.025954692,
          0.05191462,
          0.062299438,
          0.030007519,
          0.10621506,
          -0.08241341,
          0.021150028,
          0.07476056,
          -0.08170502,
          -0.027291862,
          -0.117901266,
          0.00913815,
          0.019303055,
          0.048311017,
          0.049666196,
          -0.021850193,
          -0.03291041,
          -0.043790698,
          -0.00049169356,
          -0.01005662,
          0.016909294,
          -0.00008615493,
          0.03909539,
          0.008837186,
          0.010356395,
          0.08825246,
          -0.045067538,
          -0.08383308,
          0.02965858,
          0.09055577,
          -0.035433486,
          0.025429023,
          0.06656211,
          -0.020461202,
          0.055453934,
          0.017112074,
          -0.022183202,
          -0.072203115,
          -0.017811598,
          -0.014790267,
          0.038656075,
          0.09019986,
          0.052640803,
          -0.078946665,
          0.06438498,
          0.044232056,
          0.06920746,
          0.024206936,
          0.026116412,
          0.087689884,
          0.021309758,
          0.005936365,
          -0.08273532,
          0.08515773,
          -0.055742595,
          -0.038685944,
          0.09022933,
          -0.08071706,
          -0.011197387,
          -0.06991328,
          0.038840473,
          0.067164384,
          -0.0340574,
          -0.072138935,
          -0.020176576,
          -0.04307497,
          0.02911092,
          -0.024062755,
          -0.06651616,
          0.080259144,
          0.035772458,
          0.019429464,
          -0.061153837,
          -0.039602973,
          -0.008161234
        ],
        [
          0.10627151,
          0.021120563,
          0.15101565,
          0.0061295074,
          0.097831644,
          -0.012940939,
          0.09560075,
          0.02282574,
          0.108728416,
          0.08294068,
          0.0075055794,
          -0.052696463,
          -0.01983155,
          0.027782815,
          -0.057671808,
          -0.012838072,
          -0.06657822,
          -0.05776875,
          0.037118617,
          0.067540854,
          -0.07649753,
          0.0147839645,
          0.058520947,
          0.08273053,
          -0.029071553,
          0.008154018,
          0.112984106,
          0.016758554,
          -0.026853157,
          -0.005773121,
          -0.10663491,
          0.07722343,
          -0.05734263,
          -0.03161782,
          0.07064223,
          0.05689969,
          -0.13723461,
          -0.011873429,
          -0.1406898,
          0.034384765,
          -0.05803374,
          -0.0041098474,
          -0.1474542,
          -0.05343132,
          -0.08607707,
          -0.09063286,
          0.0021946512,
          0.005958475,
          -0.07573541,
          0.049497955,
          0.009406924,
          -0.08931396,
          -0.0794427,
          -0.12554853,
          -0.05021568,
          -0.069879435,
          -0.13101664,
          0.0068896655,
          -0.115379326,
          0.018382102,
          -0.06602475,
          0.034251723,
          -0.02409168,
          -0.055411916,
          0.0004214703,
          0.03122998,
          0.043794192,
          0.07669045,
          -0.06897638,
          -0.08822661,
          0.014831346,
          0.075011276,
          0.086986035,
          0.069844015,
          0.08741101,
          0.0707113,
          -0.025148837,
          -0.089470275,
          -0.013566795,
          0.06882242,
          0.06199533,
          0.037925906,
          -0.053423997,
          0.09103841,
          0.0014424992,
          0.08677041,
          -0.008870802,
          -0.08722575,
          -0.03449255,
          -0.048190836,
          -0.02032236,
          0.03387597,
          -0.060881823,
          0.060933232,
          0.010271938,
          -0.018413322,
          -0.016609652,
          -0.07651729,
          0.05092567,
          -0.0028981115,
          -0.01966265,
          -0.037846573,
          -0.03249156,
          0.06447638,
          0.034990303,
          -0.05901038,
          -0.08232287,
          -0.067437224,
          -0.025973191,
          0.04260664,
          -0.07533349,
          0.016717538,
          -0.021390123,
          -0.063766085,
          -0.0488962,
          0.0134742735,
          0.08111093,
          0.08024233,
          0.05057169,
          0.022550467
        ],
        [
          0.09768587,
          0.014201227,
          -0.01122903,
          -0.03780199,
          0.039806068,
          -0.0014396454,
          -0.03838824,
          -0.04447246,
          -0.03568614,
          -0.08906266,
          -0.042518172,
          -0.029030759,
          -0.07368171,
          -0.058379482,
          0.05644523,
          0.037486453,
          -0.08267418,
          -0.01829709,
          -0.031585768,
          -0.06456484,
          -0.096217304,
          0.070657544,
          0.07353161,
          0.11304351,
          -0.010081231,
          0.06566645,
          0.065788954,
          -0.037457455,
          0.009401012,
          0.059938803,
          0.080474176,
          0.047271743,
          -0.051945627,
          0.053118605,
          0.094027944,
          -0.019622637,
          -0.025354251,
          -0.06185843,
          0.01903019,
          -0.044922046,
          -0.028853895,
          0.017555015,
          0.028964674,
          0.021435004,
          -0.066859104,
          -0.076033965,
          -0.04828809,
          0.07406413,
          0.019539773,
          -0.028472133,
          0.0009381611,
          -0.060082007,
          0.0398944,
          0.00908022,
          0.054023508,
          0.005813997,
          -0.07510692,
          0.103839315,
          0.07712037,
          -0.04233516,
          0.025219386,
          -0.08587563,
          -0.01682513,
          0.02231713,
          0.05477908,
          0.014670137,
          0.06799174,
          0.083841756,
          0.034331948,
          -0.0025842015,
          -0.07929049,
          0.048365604,
          -0.05881638,
          0.026465973,
          0.073122345,
          0.0029562337,
          0.054359373,
          -0.008749018,
          0.0054418854,
          -0.02546673,
          0.06966674,
          0.05654624,
          -0.038780097,
          -0.017980741,
          0.062149424,
          0.055715304,
          -0.023799175,
          -0.051789243,
          0.08672817,
          0.025905536,
          -0.08331127,
          0.06836565,
          0.04255046,
          0.089592606,
          0.06997226,
          0.052592713,
          0.018670687,
          0.008239771,
          -0.023291996,
          0.07977492,
          0.007269073,
          -0.07878507,
          -0.09032621,
          -0.089705616,
          -0.04569886,
          0.042057883,
          -0.045475055,
          0.010065979,
          0.029033273,
          0.079900995,
          0.030717904,
          0.08922016,
          -0.038468614,
          -0.05502465,
          0.027316172,
          0.075827315,
          0.028676042,
          -0.0219038,
          -0.08086876,
          0.03239249
        ],
        [
          0.017574914,
          0.008618966,
          -0.023236321,
          0.036496986,
          -0.0009224977,
          0.040316526,
          0.068002924,
          0.07886639,
          0.0030938461,
          0.084555715,
          0.061967555,
          0.037695684,
          0.10826095,
          0.018339166,
          0.041867014,
          0.040278096,
          0.03132684,
          -0.007860828,
          -0.076265596,
          0.008027969,
          -0.065445274,
          -0.08036671,
          0.037752934,
          0.09240311,
          0.04577001,
          0.04917387,
          0.08222307,
          -0.0454013,
          -0.06361649,
          0.0068391026,
          -0.11598287,
          -0.050259233,
          -0.019850494,
          -0.04635186,
          -0.0545361,
          -0.07906992,
          -0.048213925,
          0.013571276,
          -0.016217498,
          0.009321533,
          0.034759436,
          0.010292626,
          -0.07384372,
          0.013129545,
          -0.07320948,
          -0.09314517,
          -0.09421567,
          0.0005458606,
          -0.08182655,
          -0.104039975,
          -0.022006722,
          -0.10946868,
          -0.015619113,
          0.026200537,
          -0.029304674,
          0.0016276529,
          0.038518947,
          -0.04541173,
          -0.052442852,
          0.0040373784,
          0.07060619,
          -0.023079084,
          0.008420983,
          -0.023504527,
          -0.066783324,
          -0.03754115,
          -0.022651084,
          -0.04301325,
          -0.07967348,
          -0.057002414,
          0.0020670763,
          0.07337296,
          0.09080965,
          0.04387709,
          -0.036365334,
          0.060320962,
          0.076523125,
          0.011470641,
          0.00767262,
          0.023629433,
          -0.07051961,
          -0.06435082,
          0.06966785,
          -0.030587567,
          -0.03340266,
          0.03634727,
          0.047552306,
          0.052918192,
          -0.08863073,
          0.08630674,
          -0.0011004691,
          0.05894482,
          0.064683445,
          0.0055072117,
          0.010693451,
          -0.030924123,
          -0.0839143,
          0.063045636,
          0.05667177,
          0.03762006,
          0.088829376,
          0.014849781,
          0.045183074,
          0.02423488,
          0.08454481,
          -0.0146185765,
          -0.08259862,
          -0.04372758,
          -0.055163953,
          0.08586088,
          -0.016374322,
          0.0016042533,
          0.006276327,
          -0.046970345,
          0.055831604,
          -0.08222895,
          -0.0497347,
          0.016243136,
          0.056605257,
          0.059950735
        ],
        [
          0.06720888,
          -0.03561244,
          -0.03219299,
          -0.008902468,
          0.11727293,
          0.026217299,
          -0.10609712,
          -0.0788013,
          0.014723685,
          -0.12450612,
          0.0648204,
          -0.029782228,
          0.06391283,
          0.10897045,
          0.05335817,
          0.018402949,
          0.06687622,
          -0.009274444,
          0.02158574,
          -0.02385374,
          -0.14888702,
          -0.12578298,
          0.013257641,
          -0.0050859777,
          -0.08086456,
          -0.06403731,
          0.004633632,
          0.08090839,
          -0.053639248,
          0.0270649,
          -0.06343489,
          -0.06514366,
          0.10864006,
          0.08948137,
          -0.3031,
          0.05148764,
          -0.0031953645,
          -0.0124972565,
          -0.042949203,
          -0.013214546,
          0.020457769,
          0.034989648,
          0.017898273,
          0.01922786,
          -0.04900939,
          -0.03775552,
          -0.0505093,
          0.057277117,
          -0.010139675,
          0.03031219,
          0.031712882,
          0.092463516,
          -0.09857808,
          0.009217846,
          0.07373399,
          -0.01813229,
          -0.085134126,
          -0.1382553,
          -0.020523727,
          -0.015063189,
          0.030971298,
          -0.07912947,
          -0.0145061845,
          -0.042169675,
          -0.003935257,
          -0.08819127,
          -0.060473956,
          -0.074353576,
          -0.044521824,
          -0.028501969,
          -0.026240014,
          0.012891713,
          0.04244837,
          0.06285133,
          0.013252983,
          0.042430338,
          0.0594337,
          -0.05470334,
          0.0038231153,
          0.030697314,
          0.06623829,
          0.025706783,
          0.050580144,
          -0.073526114,
          -0.04202876,
          0.042225946,
          -0.08380502,
          -0.035791423,
          0.062286768,
          0.07257868,
          0.020435259,
          0.020468157,
          0.08818881,
          -0.066972464,
          0.08375024,
          0.019626303,
          -0.01475343,
          -0.016342992,
          -0.03303808,
          -0.0046450747,
          -0.038000025,
          0.048280124,
          -0.03967372,
          0.04319533,
          0.083331764,
          0.064687096,
          -0.06752017,
          0.08929612,
          -0.06889309,
          -0.025530642,
          0.04902817,
          -0.07499682,
          -0.028291037,
          0.0607773,
          -0.066264436,
          -0.08832915,
          0.04093001,
          -0.088250056,
          -0.06571739,
          -0.05238199
        ],
        [
          -0.012784081,
          0.051818192,
          0.11783654,
          0.06873741,
          0.068995744,
          0.07007149,
          -0.06230583,
          0.1181423,
          -0.049197722,
          0.027366076,
          -0.04737923,
          -0.0702063,
          0.08496772,
          -0.06772532,
          -0.05338708,
          -0.04319342,
          -0.015355172,
          -0.08803789,
          -0.09895292,
          0.020873217,
          0.028691364,
          -0.072429635,
          0.037243918,
          -0.03975881,
          -0.068831585,
          0.008479442,
          -0.045996048,
          0.09072272,
          -0.014696017,
          0.07698214,
          0.023969624,
          -0.13972378,
          0.14199768,
          0.06949733,
          0.055710725,
          0.048289463,
          -0.012185037,
          0.0063788537,
          0.04295871,
          -0.04657288,
          0.045890376,
          -0.13392003,
          0.0810963,
          -0.055428244,
          -0.0040549515,
          -0.07002362,
          -0.0010861934,
          -0.083331004,
          0.030144576,
          -0.09309893,
          -0.048149556,
          0.081876665,
          -0.04593482,
          0.018438132,
          -0.10519471,
          0.045618862,
          0.047298867,
          -0.026685426,
          -0.0842757,
          -0.064303495,
          0.080574095,
          0.015553625,
          0.07021771,
          -0.075852945,
          0.083390065,
          -0.015928704,
          -0.0192111,
          0.07114149,
          -0.044931278,
          0.039106652,
          0.089544065,
          -0.04265657,
          -0.020601071,
          -0.009049488,
          0.06008192,
          -0.070412844,
          -0.08628188,
          0.028006673,
          0.02696597,
          -0.02676505,
          0.056299474,
          -0.031093702,
          -0.07669397,
          -0.08783212,
          -0.017466586,
          0.016594863,
          -0.031143554,
          -0.059692305,
          -0.08184779,
          0.0071084397,
          -0.043343715,
          0.087093405,
          -0.022898365,
          0.029910157,
          -0.08639087,
          -0.045578502,
          -0.025423767,
          -0.02412672,
          -0.04256281,
          -0.0731409,
          0.0018380044,
          0.0035501663,
          -0.013618866,
          -0.0010372761,
          -0.076423824,
          -0.08554735,
          -0.057658866,
          0.0031911929,
          0.06780638,
          -0.039710335,
          -0.05269927,
          -0.052346796,
          -0.01868378,
          -0.06036915,
          0.02295421,
          -0.053293083,
          -0.0017137942,
          -0.09033834,
          -0.052619115,
          -0.07934007
        ],
        [
          0.031422947,
          -0.06775371,
          -0.10230112,
          -0.09600935,
          -0.038236808,
          -0.12462307,
          0.010757575,
          -0.11825932,
          -0.02644042,
          0.14670305,
          0.025756085,
          -0.0640609,
          0.09941577,
          0.06308773,
          0.022587137,
          0.00003406366,
          -0.032299638,
          -0.11254065,
          -0.078747265,
          0.010360332,
          -0.0901438,
          0.16689456,
          -0.066108726,
          0.01751042,
          -0.11809287,
          -0.017694917,
          0.024713213,
          0.09189283,
          -0.13608243,
          -0.026015535,
          -0.09127387,
          0.35730797,
          0.035983775,
          -0.08419531,
          -0.14502367,
          -0.03095292,
          -0.25179818,
          -0.016900865,
          0.04496061,
          0.081502326,
          -0.003195407,
          -0.119519375,
          0.06503643,
          0.04085836,
          -0.04338485,
          0.10610944,
          0.01798426,
          0.09733752,
          -0.005782345,
          -0.11511151,
          -0.08295341,
          0.03674082,
          0.005883393,
          0.07749436,
          0.0780555,
          0.12310416,
          -0.00032273578,
          0.03646925,
          0.09449909,
          0.081375405,
          0.041385815,
          -0.042872127,
          0.07934109,
          0.050271295,
          0.030261436,
          -0.023730768,
          0.05518472,
          0.068192564,
          0.013266498,
          0.0661395,
          -0.05390644,
          -0.05765066,
          -0.042876173,
          -0.08564939,
          -0.05650048,
          -0.003103275,
          0.0681768,
          -0.039710585,
          0.035284486,
          0.02254644,
          0.09106455,
          0.01575584,
          -0.042964134,
          -0.059991796,
          -0.06161668,
          -0.08280027,
          0.0011337801,
          0.057680164,
          -0.039302558,
          -0.05727177,
          0.009952721,
          -0.05428225,
          0.06805799,
          0.028809818,
          0.04955546,
          0.021597506,
          -0.08673375,
          -0.033188213,
          0.071235605,
          0.01920343,
          -0.02158337,
          0.08662301,
          -0.04888976,
          -0.039026745,
          0.015290992,
          0.049671214,
          0.022056194,
          -0.045601737,
          0.07914986,
          -0.07556456,
          -0.012569021,
          0.0672151,
          -0.024102474,
          0.01952475,
          0.02707933,
          0.014253259,
          -0.031781342,
          -0.025416737,
          -0.0899803,
          0.041532997
        ],
        [
          -0.024048112,
          -0.03675552,
          -0.018536052,
          -0.07025752,
          -0.023203902,
          0.02288822,
          0.046108983,
          0.060435947,
          -0.067432076,
          0.055674866,
          -0.072474085,
          0.09081942,
          0.07808268,
          0.08139235,
          0.097886495,
          0.0711916,
          -0.061237983,
          -0.035029884,
          0.036558524,
          -0.049678635,
          -0.0109021105,
          -0.038160007,
          -0.027857747,
          0.002675321,
          -0.06590635,
          0.019202216,
          0.025573745,
          0.00816132,
          -0.06633665,
          -0.064210705,
          0.09964048,
          -0.077030405,
          0.100373335,
          0.03293195,
          0.066792384,
          0.03373693,
          -0.1166501,
          0.06545575,
          -0.084444135,
          0.13136362,
          0.012040293,
          0.015984027,
          0.042661007,
          -0.014518844,
          -0.104175076,
          0.0726123,
          0.03651974,
          0.014952413,
          -0.078263246,
          -0.020005347,
          -0.019026745,
          0.08515917,
          -0.028103866,
          -0.008020757,
          -0.11228721,
          0.03949509,
          -0.07749017,
          0.106690966,
          -0.06801253,
          0.09674078,
          -0.07762768,
          0.06167498,
          0.041852467,
          -0.0104584815,
          -0.059355598,
          -0.0065053445,
          -0.051843826,
          0.0789961,
          -0.037723962,
          -0.04208167,
          0.0006860836,
          -0.051465537,
          0.0802449,
          0.08344509,
          -0.027737653,
          0.04415014,
          -0.011889021,
          -0.07861669,
          0.084292375,
          0.079328805,
          -0.0901692,
          0.019625204,
          -0.048245538,
          -0.040181484,
          -0.019702502,
          -0.002022263,
          0.048154704,
          0.01531342,
          0.07339531,
          -0.06155868,
          0.007544264,
          0.050455015,
          0.019518895,
          0.060348395,
          0.05737471,
          -0.044286147,
          0.0808735,
          -0.05063401,
          0.060502034,
          0.055983063,
          0.08042203,
          0.0777386,
          0.08887334,
          0.057879448,
          0.044068,
          0.06452254,
          -0.027889712,
          0.08655596,
          -0.08659583,
          -0.046734504,
          -0.04718926,
          -0.061557405,
          0.08990451,
          -0.053880498,
          0.066488564,
          0.0027800933,
          -0.017835071,
          -0.017556887,
          -0.047060285,
          -0.056433327
        ],
        [
          -0.0051044933,
          -0.0019490365,
          0.056906935,
          0.0062672733,
          -0.06575411,
          -0.01101986,
          0.06001398,
          -0.07635228,
          0.09557727,
          0.09419787,
          0.10346834,
          0.041884758,
          0.08327498,
          0.02249066,
          0.011425436,
          0.045818157,
          -0.02178325,
          0.08726111,
          0.04575128,
          0.021088073,
          0.020267766,
          -0.04104366,
          0.06199275,
          0.08238251,
          0.070763804,
          -0.05850226,
          0.10379933,
          0.013634302,
          0.010756306,
          0.041349825,
          0.044897627,
          -0.10761168,
          0.038857132,
          -0.103351496,
          -0.01660951,
          -0.011903615,
          -0.10051249,
          -0.11288259,
          0.037738957,
          -0.011110158,
          -0.09760744,
          0.0031642276,
          -0.07559787,
          -0.042315144,
          0.0028582644,
          -0.0014263625,
          -0.083298236,
          -0.057070766,
          -0.06465665,
          -0.0408146,
          -0.11433671,
          -0.08494685,
          -0.093072265,
          -0.048686385,
          0.016153049,
          -0.08896555,
          0.032429904,
          0.067908056,
          -0.09054452,
          0.06549479,
          0.0121938875,
          -0.08338581,
          -0.05818992,
          -0.009670071,
          0.03718531,
          -0.05872599,
          0.04383391,
          0.08622998,
          0.07260535,
          0.071955524,
          -0.078049,
          -0.037659314,
          -0.01688865,
          0.033433955,
          0.024375305,
          0.06190207,
          0.0052820574,
          0.013984641,
          0.08315197,
          -0.039385404,
          -0.06584063,
          0.042353477,
          0.029895095,
          0.011370328,
          -0.0011966905,
          0.041138176,
          0.050475076,
          -0.049309444,
          -0.019811716,
          0.026009234,
          -0.012270781,
          -0.089388475,
          -0.030003494,
          -0.043830212,
          -0.08941196,
          -0.059243258,
          -0.05756505,
          -0.042842526,
          -0.031002302,
          0.07345697,
          -0.04692811,
          -0.0690009,
          0.035086177,
          -0.028907355,
          0.05312872,
          0.053335723,
          -0.050396465,
          -0.08176303,
          -0.04823963,
          0.072941154,
          0.031604547,
          -0.0054023503,
          -0.0032942914,
          0.08785436,
          -0.0654893,
          0.059957605,
          0.0073698317,
          -0.05625934,
          -0.06710396,
          -0.036016643
        ],
        [
          0.10037006,
          -0.05742116,
          0.019165413,
          0.058876414,
          0.11374368,
          0.054176107,
          0.056235004,
          0.014882916,
          0.10316821,
          0.046007354,
          -0.029664218,
          -0.021416858,
          -0.06815449,
          0.00404374,
          0.06959478,
          0.023488672,
          0.010882335,
          -0.043383863,
          -0.063465945,
          -0.0442312,
          0.06311717,
          0.11775723,
          0.11605344,
          -0.043987036,
          0.10787414,
          0.0740121,
          -0.03458603,
          -0.022764241,
          0.08706476,
          0.004587205,
          0.018252196,
          -0.027847514,
          -0.11259528,
          0.062089846,
          -0.037758265,
          0.02004664,
          -0.10411331,
          -0.039252456,
          -0.08722489,
          0.006047209,
          0.027558528,
          0.067651205,
          0.04478427,
          -0.09169259,
          -0.04130243,
          -0.011250945,
          -0.016976394,
          -0.053999823,
          -0.06510032,
          -0.031462856,
          0.027952703,
          -0.071618624,
          -0.05903493,
          -0.049758594,
          -0.020049592,
          -0.10360274,
          0.03476994,
          -0.059964247,
          -0.027028553,
          0.025685683,
          0.017211266,
          0.0034872885,
          0.063121326,
          0.009384238,
          -0.071329094,
          -0.032482017,
          -0.043375157,
          -0.08288403,
          -0.019409604,
          -0.03842403,
          0.03683683,
          0.041740578,
          0.05703959,
          0.083645865,
          -0.049567476,
          0.013086212,
          0.013883555,
          0.06968106,
          0.08876502,
          0.090359986,
          -0.053338323,
          0.08023224,
          -0.071477845,
          -0.020837838,
          -0.033531405,
          -0.05824038,
          -0.089319885,
          -0.03059686,
          -0.07929077,
          -0.025183976,
          0.052710414,
          0.046557795,
          0.01325234,
          0.018791819,
          -0.07973462,
          0.081091516,
          0.011742045,
          0.015965464,
          -0.0024727562,
          -0.07731025,
          0.0077338545,
          -0.079345435,
          -0.08014629,
          0.06024828,
          -0.038251873,
          -0.00005581516,
          -0.08227679,
          0.0534049,
          0.049665578,
          0.020913372,
          -0.07770436,
          -0.032026563,
          0.042491704,
          -0.065297045,
          0.08574587,
          0.028978646,
          0.0038884415,
          -0.013483197,
          -0.050020404,
          0.019327683
        ],
        [
          -0.021012127,
          0.07348369,
          -0.070082754,
          -0.07031685,
          0.057392262,
          0.033433463,
          0.01778694,
          0.07426722,
          -0.07396063,
          -0.018484801,
          -0.09342656,
          -0.08743804,
          0.05974358,
          0.030213935,
          0.035529114,
          0.0069525894,
          0.030003395,
          -0.007082133,
          0.03476388,
          -0.02126432,
          -0.079349674,
          0.12996496,
          -0.031517632,
          -0.032959796,
          0.015070946,
          0.0229739,
          -0.060018037,
          -0.0847565,
          -0.065585256,
          -0.0697167,
          -0.118980125,
          0.03092794,
          0.084817424,
          -0.04613415,
          0.069382615,
          -0.008954832,
          -0.026747005,
          0.018886752,
          0.020375386,
          -0.059757832,
          -0.09059782,
          0.007783206,
          -0.05139864,
          -0.03824709,
          0.020095771,
          0.07893542,
          -0.036583748,
          -0.044217415,
          0.02621342,
          -0.0594733,
          -0.09358562,
          0.03792661,
          -0.08801878,
          -0.006684855,
          -0.09579484,
          0.047707662,
          -0.011219475,
          0.035561964,
          -0.08373844,
          0.0036744776,
          -0.0472768,
          -0.013915757,
          0.021521255,
          0.07520969,
          -0.0718828,
          -0.035151295,
          0.023200346,
          -0.011454644,
          -0.04576278,
          -0.023568623,
          0.033696033,
          0.02551853,
          0.019075105,
          0.08182384,
          0.022539085,
          -0.0510326,
          -0.080195814,
          0.052980874,
          -0.0423639,
          -0.008366277,
          -0.026497422,
          0.05182227,
          -0.0146649135,
          0.028284172,
          0.086510494,
          0.0012247667,
          0.08690548,
          -0.0748342,
          0.030724715,
          0.07542843,
          0.029382735,
          -0.007726161,
          0.008866142,
          0.0071595972,
          -0.050846107,
          0.077369966,
          0.02909427,
          -0.010081051,
          0.00091182534,
          0.0031611903,
          -0.027369332,
          0.07164509,
          0.04675543,
          0.013597243,
          0.087771684,
          -0.053407382,
          -0.08851712,
          0.0062988424,
          0.005203466,
          0.07526059,
          0.0405009,
          -0.031762667,
          -0.06765709,
          -0.003954018,
          0.029650636,
          0.0667511,
          -0.040534474,
          -0.01270098,
          -0.066094995,
          -0.03398956
        ],
        [
          0.04571652,
          -0.11684641,
          -0.04734434,
          0.11269303,
          -0.09749503,
          0.035477225,
          -0.050394885,
          -0.12472283,
          0.03691869,
          0.030624809,
          -0.035592865,
          0.09429383,
          0.084759794,
          0.01781647,
          -0.003755639,
          0.07202308,
          0.073777005,
          0.06043733,
          0.06504669,
          -0.036890186,
          0.082879804,
          0.094355844,
          -0.0061166994,
          0.0078046317,
          0.01928169,
          0.05516547,
          0.076361604,
          0.059349887,
          0.004500971,
          0.006514651,
          -0.105776876,
          -0.026353834,
          0.0014512914,
          0.00094336254,
          -0.010116649,
          -0.00068708765,
          -0.00068515626,
          -0.039325785,
          0.009803711,
          -0.029219784,
          0.039797455,
          -0.058039356,
          -0.034793694,
          -0.074620135,
          0.015915541,
          -0.064399,
          -0.043719836,
          -0.00837013,
          -0.033420328,
          0.03450499,
          0.013774526,
          -0.04693952,
          -0.09072297,
          -0.07263661,
          -0.015480993,
          -0.063590445,
          0.09855566,
          0.011104365,
          0.058543917,
          -0.052426003,
          0.067398995,
          0.012542338,
          -0.09090273,
          -0.04999927,
          0.010873139,
          -0.084308706,
          -0.043581247,
          0.0026486465,
          -0.055661317,
          -0.01858217,
          -0.059887197,
          0.020123199,
          -0.08269418,
          0.0360303,
          0.05432246,
          0.06962362,
          -0.08423892,
          -0.008141646,
          0.027853321,
          -0.06716031,
          -0.03139252,
          -0.026170302,
          -0.040109042,
          -0.03699717,
          0.040156856,
          0.024607008,
          0.050545715,
          0.08408276,
          0.038492925,
          0.0731206,
          0.05367349,
          -0.070914514,
          -0.07598527,
          -0.050679762,
          -0.027761376,
          -0.04201012,
          0.045915004,
          0.008866579,
          0.011724231,
          0.081514284,
          0.03882895,
          -0.036292043,
          -0.021746887,
          -0.018964684,
          0.0013286816,
          0.07876533,
          -0.058381796,
          -0.07913258,
          -0.08606901,
          0.067035116,
          -0.042535223,
          -0.024338858,
          0.08285667,
          0.033780053,
          -0.045973625,
          0.07076176,
          0.03819857,
          0.04119522,
          0.06594801,
          0.06776279
        ],
        [
          0.11310609,
          -0.0031672586,
          0.019763406,
          -0.03104975,
          0.11860079,
          0.1482972,
          -0.046910793,
          -0.037718434,
          -0.016306669,
          0.062543415,
          -0.08694758,
          -0.09616068,
          -0.026112588,
          -0.077630214,
          0.007841977,
          0.034456566,
          -0.060334027,
          0.037834413,
          0.035518922,
          -0.040610068,
          0.038118605,
          0.068516545,
          -0.077487275,
          -0.08427137,
          0.07991105,
          -0.00002435674,
          -0.05670518,
          0.02049139,
          -0.08500765,
          -0.056898627,
          0.016591392,
          0.01704122,
          -0.07028345,
          0.004822818,
          0.044258013,
          -0.058324523,
          -0.027606092,
          0.0081048785,
          -0.02775908,
          0.039343715,
          -0.11191637,
          0.085310966,
          0.066523485,
          0.050455347,
          -0.058820978,
          -0.076029316,
          0.02094977,
          -0.0037293953,
          0.08263535,
          -0.07509026,
          0.12662157,
          -0.05199373,
          -0.07992375,
          0.08876862,
          0.08709238,
          0.008512202,
          -0.060069107,
          -0.08462771,
          0.10537562,
          0.025621464,
          0.044872396,
          0.060143124,
          -0.03184165,
          -0.05285221,
          0.015435901,
          0.073255315,
          0.021861413,
          -0.090752676,
          0.026166406,
          -0.08420071,
          0.0014605529,
          0.013154389,
          -0.0005449732,
          -0.089813896,
          -0.049054734,
          0.0851909,
          0.08428395,
          0.009108601,
          -0.0848326,
          0.0448267,
          0.030047197,
          -0.077024214,
          0.078258015,
          0.090885796,
          -0.02144855,
          -0.048397716,
          -0.0352696,
          0.010925864,
          -0.0748311,
          -0.0010657877,
          -0.086162776,
          0.0497669,
          0.07541752,
          0.027828999,
          -0.018893013,
          -0.012628395,
          -0.005670272,
          0.042177882,
          0.012939704,
          0.045615286,
          -0.02196917,
          -0.04203564,
          -0.08240781,
          -0.063754894,
          -0.058071967,
          0.08420479,
          0.041643843,
          -0.03661864,
          0.05028429,
          0.051694848,
          -0.038149264,
          -0.06131485,
          0.087050736,
          -0.002052124,
          -0.033054143,
          -0.042312507,
          -0.08102428,
          0.035211857,
          0.017606772,
          -0.081146635
        ],
        [
          -0.05541598,
          0.048561987,
          0.07021635,
          0.054008543,
          0.024575258,
          0.018478237,
          0.10294156,
          -0.052282285,
          0.10249155,
          -0.009369365,
          -0.0058810646,
          0.10044663,
          -0.045868922,
          0.0022681048,
          -0.06544872,
          0.06330053,
          -0.038621906,
          0.06568432,
          0.06511984,
          0.03602968,
          -0.037498403,
          0.0018683503,
          -0.014346339,
          -0.042810693,
          0.041927602,
          0.05985483,
          -0.019404883,
          -0.115476966,
          0.026121574,
          0.0061318944,
          0.033468734,
          -0.08120372,
          0.08107278,
          -0.07238852,
          -0.056224745,
          -0.04621749,
          -0.030007785,
          0.010888256,
          0.08170748,
          -0.05579352,
          -0.052191265,
          0.004381694,
          0.1340611,
          0.050523803,
          -0.11689702,
          -0.0069185495,
          -0.070917055,
          -0.017091736,
          0.091388874,
          0.011220699,
          0.015615846,
          -0.057389554,
          0.10302826,
          0.01469721,
          -0.035980925,
          0.011116073,
          -0.00467121,
          -0.076550774,
          0.115443975,
          -0.002880763,
          -0.084808454,
          -0.0004058216,
          -0.061515737,
          0.011330379,
          0.06757271,
          0.051247187,
          0.06378017,
          -0.015278967,
          -0.044298008,
          -0.03127726,
          0.0738708,
          -0.05305042,
          -0.06947027,
          0.010959795,
          0.019008951,
          -0.007897078,
          -0.009673565,
          -0.059401598,
          0.062670454,
          -0.060081117,
          0.036296144,
          0.043438092,
          0.024909677,
          -0.07394559,
          0.08085674,
          -0.037817843,
          0.07283742,
          0.04391717,
          0.016372973,
          0.07472406,
          0.08555731,
          0.033309072,
          -0.041998424,
          0.07878565,
          0.07008125,
          -0.086361796,
          -0.018445414,
          -0.012590209,
          0.07764075,
          -0.040955245,
          -0.02797692,
          -0.08093837,
          -0.061295263,
          -0.059064016,
          -0.030526279,
          -0.083782256,
          0.062040687,
          -0.08897748,
          -0.050093666,
          0.046737693,
          0.055169113,
          0.08741127,
          -0.063535936,
          -0.036068097,
          -0.021915965,
          -0.07253143,
          0.08385739,
          -0.029496172,
          -0.06668681,
          0.022490907
        ],
        [
          0.024818698,
          -0.052920956,
          -0.016883375,
          0.0032310113,
          0.10712058,
          -0.028029323,
          0.04263383,
          0.09109103,
          -0.03830286,
          0.047893275,
          0.030145064,
          0.0090896115,
          0.02439941,
          0.10717788,
          0.019094612,
          -0.08045225,
          0.10105599,
          0.03853166,
          -0.043240078,
          0.03815879,
          0.028687235,
          -0.014448127,
          0.08442921,
          0.006232796,
          -0.068230845,
          -0.056161933,
          -0.05658765,
          0.056293372,
          -0.05466508,
          -0.011930294,
          0.037587553,
          -0.07153876,
          -0.100085996,
          -0.012761982,
          -0.014654381,
          -0.10115434,
          0.08992972,
          -0.06977688,
          0.044127434,
          -0.02895768,
          0.0013389167,
          -0.00047630965,
          0.039046615,
          -0.040287178,
          0.054011088,
          -0.036078863,
          0.03080093,
          -0.09509532,
          0.055915415,
          -0.08302501,
          0.055470586,
          0.06693139,
          -0.08618473,
          0.059226774,
          -0.034539763,
          -0.025201248,
          0.017376976,
          0.13158524,
          0.0643879,
          0.06679189,
          -0.086477205,
          -0.011430975,
          -0.018698024,
          -0.08319211,
          0.026827862,
          0.01688383,
          -0.05843437,
          -0.071759194,
          -0.0838387,
          -0.0059949006,
          -0.046740152,
          0.009954719,
          0.0356546,
          0.019430771,
          -0.01490836,
          -0.00007569706,
          0.0030799434,
          -0.00029167745,
          0.077331506,
          0.025826052,
          -0.07707771,
          0.07661706,
          0.020591833,
          -0.018644124,
          0.0693898,
          -0.026002618,
          0.055419784,
          -0.055321388,
          0.018583369,
          -0.082495205,
          -0.08962715,
          -0.06447866,
          -0.076939814,
          -0.037822165,
          -0.058883905,
          -0.042786676,
          0.0449233,
          0.035595924,
          0.01749254,
          0.035701036,
          0.063393734,
          0.08779968,
          -0.05582296,
          0.08154111,
          0.070255846,
          -0.082391195,
          0.028528761,
          0.03995891,
          -0.04495201,
          0.009544262,
          -0.0038572422,
          0.060582116,
          0.090329535,
          -0.014487304,
          -0.019011771,
          -0.061886553,
          0.08766779,
          -0.05420234,
          0.057487067,
          0.061445296
        ],
        [
          0.06282125,
          -0.026556373,
          0.07374052,
          0.01719931,
          -0.034243353,
          0.036686312,
          0.0674366,
          -0.07941818,
          0.03436621,
          -0.037857976,
          -0.049115743,
          -0.03617768,
          -0.013463599,
          -0.015682379,
          -0.052813467,
          0.0699822,
          0.0995875,
          0.041889004,
          0.1271121,
          0.0650806,
          0.02488361,
          -0.06541311,
          0.10194504,
          -0.09882216,
          -0.04589434,
          0.11222432,
          0.108532034,
          -0.14619651,
          -0.032151777,
          0.005036849,
          -0.084000885,
          -0.06358053,
          0.032370593,
          -0.0015955165,
          0.014710904,
          0.0005002973,
          0.066293366,
          0.10824875,
          -0.060312733,
          -0.044175908,
          0.05757862,
          0.06653455,
          0.07370232,
          0.080045894,
          -0.09770606,
          -0.1264509,
          -0.064129695,
          0.0566777,
          0.075394824,
          0.07239521,
          -0.016937071,
          -0.12884605,
          0.06502784,
          0.11683708,
          -0.07587423,
          0.012814582,
          0.025932603,
          -0.14663462,
          0.022452908,
          -0.0043162475,
          0.063530974,
          -0.022580056,
          -0.07809051,
          0.075677544,
          0.090924874,
          -0.036858562,
          0.06966726,
          -0.060301006,
          -0.0052460264,
          -0.041219458,
          -0.005464651,
          -0.06426024,
          0.05080836,
          -0.088131614,
          -0.060315512,
          0.0021790657,
          -0.020681502,
          -0.08386366,
          -0.02694809,
          0.02768767,
          0.061831966,
          0.013052302,
          -0.02701333,
          0.0048736245,
          -0.075196035,
          -0.004543195,
          0.040426932,
          0.064562686,
          -0.009838921,
          0.06500111,
          -0.08066439,
          0.0917671,
          -0.09089713,
          0.08898107,
          0.08999389,
          -0.083797544,
          0.014985276,
          -0.0736327,
          0.07306165,
          0.013004758,
          0.03946221,
          -0.047414526,
          0.017751908,
          0.048398,
          0.023667064,
          -0.0897838,
          0.0088358475,
          -0.0008994304,
          0.037257668,
          0.031609345,
          0.06053369,
          0.010681742,
          0.06218097,
          -0.043960884,
          0.035725936,
          0.049259845,
          -0.006643756,
          0.041843317,
          0.013443901,
          0.010753989
        ],
        [
          0.08829571,
          -0.046631258,
          0.08210056,
          -0.0456704,
          0.021970658,
          -0.06921677,
          0.07063179,
          0.069329925,
          0.08721116,
          -0.030346202,
          -0.027181232,
          -0.010285248,
          0.107467264,
          -0.064916804,
          0.052822705,
          0.047866937,
          -0.017025575,
          0.007306514,
          0.02028884,
          0.0862498,
          0.100030094,
          -0.03858032,
          0.08398695,
          0.122124664,
          -0.05328803,
          0.053520866,
          -0.008980789,
          0.06663507,
          0.023532245,
          -0.027913492,
          -0.07530962,
          0.0045485883,
          -0.027419414,
          -0.088442154,
          0.020203408,
          0.0882984,
          -0.067389175,
          -0.1135684,
          -0.13873929,
          -0.12583947,
          -0.10516598,
          0.079644084,
          -0.029669657,
          -0.04136494,
          0.05408607,
          -0.10515819,
          0.023604281,
          -0.03862147,
          -0.078033864,
          0.0072961715,
          0.031153144,
          -0.037443537,
          -0.028275628,
          0.11235184,
          0.06860508,
          0.03546709,
          -0.055940956,
          0.0019069058,
          -0.049480636,
          -0.035834186,
          0.028782938,
          -0.054978758,
          -0.08148741,
          0.035690546,
          0.008404312,
          -0.047208775,
          -0.040835913,
          -0.011299953,
          0.010141154,
          -0.0064511723,
          -0.020069517,
          -0.077734224,
          -0.08912873,
          0.06803027,
          -0.06949896,
          -0.033192903,
          0.055490628,
          0.083642505,
          0.011526031,
          -0.0057349997,
          0.028221631,
          -0.07392696,
          -0.084888995,
          0.0013939425,
          -0.042229667,
          0.013555608,
          0.08748019,
          -0.00793509,
          0.069447204,
          -0.039638024,
          0.04338295,
          -0.039437115,
          0.0014757119,
          -0.069858044,
          0.015635328,
          -0.06476998,
          0.010071954,
          -0.042347632,
          0.07086109,
          0.06573513,
          -0.08220969,
          0.064596206,
          -0.05881578,
          0.074998915,
          0.005408858,
          -0.042977184,
          -0.029765574,
          0.07608469,
          0.06506446,
          -0.0766628,
          -0.07279715,
          -0.08669823,
          0.083920375,
          -0.010976042,
          0.001978636,
          -0.071260616,
          0.077746935,
          0.012182918,
          0.012690848,
          0.08252098
        ],
        [
          0.053932197,
          0.04179484,
          -0.017904188,
          0.01120182,
          0.035901308,
          -0.0136432005,
          0.019349398,
          -0.11653941,
          0.041775998,
          0.12520914,
          0.0073085576,
          -0.02310491,
          -0.020044336,
          0.007000349,
          -0.089649945,
          -0.0033333108,
          0.08679129,
          0.106420554,
          -0.06115186,
          -0.033292722,
          -0.044705518,
          0.04060366,
          0.03373347,
          0.06125133,
          0.038877938,
          0.08104795,
          0.034631167,
          0.049192052,
          -0.02542782,
          0.097564586,
          -0.056599777,
          0.06796652,
          -0.068911545,
          -0.0009935818,
          0.016280076,
          -0.108235516,
          0.03676878,
          -0.0045117075,
          0.043159336,
          0.075588286,
          -0.03433466,
          0.07325105,
          -0.02360425,
          -0.026119435,
          0.019835021,
          -0.021623207,
          0.019893017,
          -0.089978114,
          0.12458215,
          0.049063835,
          -0.086272985,
          -0.095351465,
          -0.080377586,
          0.1533161,
          0.07489342,
          0.04974515,
          -0.039575577,
          -0.0021970347,
          -0.004789426,
          -0.025181925,
          0.06877172,
          0.060223937,
          -0.03186064,
          -0.043639585,
          -0.0111164665,
          0.02317437,
          -0.08445685,
          -0.038250446,
          -0.05025799,
          0.029271116,
          -0.08107177,
          0.089013524,
          0.004666709,
          -0.0066773714,
          -0.0030674397,
          0.05155019,
          0.0907527,
          0.0018551331,
          -0.009711946,
          0.059991144,
          0.07845001,
          -0.02958617,
          -0.082188375,
          -0.060799967,
          -0.039273154,
          -0.037035126,
          0.025834583,
          -0.017196978,
          -0.01598502,
          -0.02285899,
          -0.026186407,
          -0.06930224,
          0.006379698,
          -0.065674275,
          0.0716045,
          -0.036498684,
          -0.06753604,
          -0.047074195,
          0.04628672,
          0.069903076,
          0.0775966,
          -0.03343028,
          -0.05943436,
          -0.0684543,
          0.015286933,
          -0.046504572,
          -0.064850464,
          0.013481467,
          -0.019886727,
          -0.029472983,
          -0.019824164,
          -0.026839225,
          -0.08436596,
          0.042581733,
          -0.017745009,
          -0.04186814,
          -0.0033709896,
          -0.022340951,
          0.0044404664,
          0.009098992
        ],
        [
          0.049868114,
          0.049963336,
          -0.123977296,
          -0.02019338,
          0.012404896,
          0.1262716,
          -0.012447224,
          -0.15391089,
          0.06311758,
          0.023034936,
          0.09699876,
          -0.023820331,
          0.13802284,
          -0.042913917,
          0.029910842,
          -0.13447112,
          -0.12716064,
          -0.049945664,
          0.04867405,
          -0.058758702,
          0.12279897,
          0.2389672,
          -0.060443904,
          0.2712555,
          -0.037234217,
          -0.11799073,
          0.06480062,
          0.0558473,
          0.010876626,
          0.025172587,
          -0.079172194,
          -0.03691958,
          -0.019791752,
          -0.057625033,
          0.018467214,
          -0.10461918,
          -0.14604177,
          0.048305906,
          0.0610529,
          0.15158382,
          0.11660342,
          -0.06910216,
          -0.032693814,
          0.33300975,
          -0.19655387,
          -0.018951166,
          0.040329866,
          0.0008871364,
          -0.10744824,
          -0.047191884,
          -0.1034426,
          0.12778543,
          0.08561878,
          -0.060453136,
          -0.065176725,
          -0.0072964323,
          0.025181372,
          -0.016202955,
          0.13472843,
          0.07439754,
          0.08135065,
          -0.03338062,
          -0.08949641,
          0.079985484,
          -0.01656338,
          0.079377435,
          0.021896496,
          0.051412467,
          0.056456104,
          0.080730505,
          -0.012345075,
          0.033861574,
          0.058666434,
          -0.071715005,
          -0.06578309,
          0.0700115,
          0.04483211,
          -0.05121024,
          -0.0005993301,
          -0.04259082,
          0.02434517,
          -0.029846277,
          0.08844159,
          0.04513516,
          0.027569946,
          0.087622836,
          -0.080146216,
          -0.067886926,
          0.03428125,
          -0.02188827,
          0.005371234,
          -0.044644386,
          -0.05174728,
          -0.058068614,
          -0.06044636,
          -0.06391357,
          -0.058138687,
          -0.010954452,
          0.0269016,
          -0.066052936,
          -0.06484072,
          0.03221217,
          0.0076840357,
          0.06506537,
          0.06607616,
          0.028368955,
          0.018217877,
          0.02841787,
          -0.028447047,
          0.015041886,
          0.08422876,
          0.0063530253,
          -0.078801855,
          -0.015585281,
          0.03973878,
          -0.073306665,
          -0.046782866,
          -0.08946102,
          0.052333377,
          -0.034404557
        ],
        [
          -0.12146158,
          -0.03633753,
          -0.008947229,
          -0.05017188,
          0.070312515,
          -0.12256875,
          -0.068465605,
          -0.009945688,
          -0.023787798,
          -0.07047803,
          -0.0013055427,
          0.029222563,
          0.013914117,
          -0.06450938,
          0.01517932,
          0.046479948,
          -0.055804256,
          -0.045935288,
          0.035006784,
          -0.009329662,
          -0.093464546,
          0.039603956,
          0.0062873275,
          0.038932025,
          -0.049464844,
          -0.087687984,
          -0.07297714,
          0.08982587,
          0.027238205,
          0.091927886,
          0.034885168,
          -0.17673387,
          0.102988936,
          -0.007786147,
          -0.041785397,
          0.08283317,
          -0.073205225,
          -0.03714395,
          -0.00034542487,
          -0.11992979,
          0.0815034,
          0.08450074,
          -0.04959391,
          -0.021223512,
          0.0502857,
          -0.0065388456,
          -0.03600969,
          -0.028562171,
          -0.021180011,
          -0.0721837,
          0.08708861,
          -0.007494402,
          -0.09281495,
          0.058498662,
          0.016089838,
          0.13251834,
          -0.11959782,
          -0.060989268,
          -0.025032334,
          -0.11547665,
          0.034822904,
          0.06351458,
          0.028663255,
          -0.00020613194,
          0.05283938,
          -0.044272326,
          -0.05671039,
          -0.01896736,
          -0.032610558,
          -0.03292187,
          0.0729872,
          0.02191256,
          0.021609422,
          0.081634335,
          0.004014393,
          -0.014348479,
          0.0017926253,
          -0.012667756,
          -0.06307276,
          -0.06659211,
          -0.010453889,
          0.029575842,
          -0.07382266,
          -0.058619782,
          -0.08417241,
          0.019435145,
          0.023475667,
          0.07128955,
          -0.012690076,
          -0.054014612,
          0.0848493,
          0.0036154704,
          0.030792765,
          -0.04842562,
          -0.06886845,
          -0.03588707,
          -0.032736424,
          -0.06723478,
          0.0040937355,
          0.09117605,
          0.057109114,
          -0.019390538,
          -0.037371702,
          -0.0012892333,
          0.07280058,
          -0.05849864,
          0.04945381,
          0.035709806,
          -0.067712516,
          -0.07588521,
          0.041492406,
          0.030174835,
          -0.08110723,
          0.052975006,
          -0.016510231,
          0.038516987,
          0.05945503,
          -0.08158496,
          0.04362765,
          0.040889606
        ],
        [
          -0.04276633,
          0.016286919,
          -0.033227254,
          -0.10153144,
          -0.09718997,
          -0.1357964,
          0.097569875,
          0.10501602,
          0.09993324,
          0.008669214,
          -0.0584995,
          0.117363796,
          0.12129002,
          0.058114607,
          -0.048521,
          0.0071848,
          -0.049669314,
          -0.085301995,
          0.16086504,
          -0.020102916,
          -0.16391699,
          0.17269243,
          0.34858352,
          0.06673734,
          0.046882965,
          0.07546796,
          0.047636434,
          0.026988419,
          -0.11192545,
          -0.03153569,
          0.048071448,
          -0.27254736,
          0.12221173,
          0.29232118,
          0.22911184,
          -0.08471444,
          -0.03778994,
          0.049708094,
          0.12853637,
          0.10943375,
          -0.13565272,
          -0.04857743,
          -0.07202795,
          0.16766118,
          -0.13560638,
          0.1460268,
          -0.024452848,
          0.20690772,
          -0.03218784,
          -0.0695962,
          -0.06673114,
          0.06581407,
          0.050663415,
          0.0073030577,
          0.0014274913,
          -0.14538945,
          0.070258334,
          0.13078046,
          0.14616193,
          -0.06368632,
          0.074985504,
          0.061408427,
          0.023093067,
          -0.042979937,
          -0.05698952,
          -0.01649369,
          0.051659632,
          -0.013097627,
          -0.0046318965,
          -0.049994733,
          -0.059191503,
          -0.0002832981,
          0.036602862,
          0.07821679,
          0.0691674,
          -0.058974173,
          -0.062913954,
          0.074536175,
          -0.023071967,
          0.027378332,
          -0.03407563,
          0.00922428,
          -0.05398411,
          -0.03398327,
          -0.018711278,
          -0.049452852,
          0.087643504,
          0.04682833,
          0.03354873,
          0.085782945,
          -0.08897317,
          -0.08921549,
          0.009462024,
          -0.054162163,
          0.010677846,
          0.0029947243,
          -0.07143328,
          0.075576134,
          0.055119097,
          -0.021410419,
          0.07129446,
          0.012117069,
          0.07498099,
          -0.002364543,
          0.021984164,
          0.047965627,
          -0.030908965,
          0.008128511,
          -0.0049009714,
          0.07949802,
          0.03892678,
          -0.01337975,
          0.0034391996,
          -0.032285724,
          -0.08198664,
          0.08919346,
          0.046741046,
          0.046999782,
          0.0029980433,
          0.073921435
        ],
        [
          0.009465328,
          0.008465746,
          0.034293197,
          -0.0012637483,
          0.04182403,
          0.09501334,
          0.030515166,
          0.0049631963,
          0.020139242,
          0.03745018,
          -0.048965868,
          0.11053319,
          0.11073068,
          -0.05153343,
          -0.053624436,
          -0.016203532,
          0.1012018,
          0.002061016,
          0.059013706,
          0.115877174,
          0.11801483,
          -0.032891817,
          -0.043900497,
          -0.016528571,
          0.039569177,
          0.088216126,
          0.04720067,
          0.090715684,
          -0.030144311,
          0.053815115,
          -0.028940493,
          -0.017030597,
          -0.009062502,
          -0.032519408,
          -0.05309848,
          -0.11769128,
          -0.027707377,
          0.02882047,
          -0.11628347,
          -0.007431838,
          0.06697422,
          -0.012810016,
          -0.09266228,
          -0.056197587,
          0.0391754,
          -0.060160983,
          -0.032588776,
          0.017255532,
          -0.045371287,
          -0.09170276,
          -0.0009037707,
          -0.08022541,
          -0.072241075,
          -0.05507443,
          -0.027227875,
          -0.082194135,
          -0.010905599,
          0.04531886,
          -0.062105745,
          -0.100360446,
          0.006118578,
          -0.06359409,
          -0.037842035,
          0.010574236,
          0.023690516,
          -0.08299258,
          0.052061245,
          -0.048567306,
          0.051297974,
          -0.019058587,
          -0.080779545,
          0.06640872,
          0.03453844,
          -0.044423763,
          0.0018693127,
          -0.0053503984,
          -0.046270255,
          -0.013214775,
          -0.080356084,
          -0.08848696,
          -0.0070025446,
          0.09006387,
          0.04576546,
          0.012600057,
          0.08008136,
          -0.051204417,
          0.015974225,
          0.026331762,
          -0.0053656334,
          -0.0665296,
          -0.079170205,
          -0.017952511,
          -0.061847836,
          -0.031996146,
          0.033545323,
          -0.06327577,
          0.051363092,
          -0.043933943,
          0.076958485,
          -0.020539109,
          0.046393387,
          0.012204498,
          -0.080981225,
          0.08847411,
          0.007508951,
          -0.07089717,
          0.08063545,
          0.059959106,
          0.066687904,
          -0.08090057,
          -0.0852252,
          0.05605888,
          0.027689194,
          -0.04441112,
          -0.016537871,
          -0.036718212,
          -0.04194983,
          0.051508687,
          0.07220848,
          -0.06483713
        ],
        [
          -0.029554043,
          -0.05773048,
          -0.017967066,
          -0.11161459,
          0.025528548,
          -0.056024317,
          0.13049196,
          0.09064708,
          0.055095002,
          0.07107367,
          0.050391953,
          0.07589017,
          0.048441775,
          0.0887463,
          0.031863384,
          -0.0628387,
          0.090682715,
          -0.02915034,
          0.07968727,
          0.07131744,
          -0.05887575,
          0.045555174,
          0.10300564,
          0.067925446,
          0.096526384,
          0.08490733,
          -0.043941755,
          0.08514469,
          -0.056239218,
          0.052344456,
          0.048426997,
          -0.03432702,
          0.03153895,
          -0.0015756435,
          0.041141067,
          0.052421764,
          0.059284285,
          0.016780784,
          -0.0018989793,
          0.008908292,
          0.056461707,
          0.024029607,
          -0.08145509,
          0.02551518,
          0.04575409,
          0.13553572,
          0.022776395,
          -0.020031076,
          0.09925174,
          0.0203183,
          0.10581539,
          0.019261615,
          0.11632111,
          -0.09227263,
          -0.12801081,
          0.013388219,
          -0.039766435,
          0.046773378,
          0.0875069,
          0.029289534,
          -0.05163839,
          -0.023595797,
          0.050269697,
          -0.021615995,
          0.0037956594,
          0.0065353797,
          0.046641722,
          -0.083072565,
          -0.034351308,
          -0.049095586,
          0.030252764,
          -0.053727277,
          -0.05661665,
          0.009634335,
          -0.089511245,
          0.028950438,
          -0.07432644,
          -0.07087734,
          0.03516204,
          -0.0506727,
          -0.06082884,
          0.03195327,
          -0.0011912058,
          0.08610008,
          -0.019795327,
          0.034488,
          0.049951173,
          0.03994349,
          0.06948934,
          0.011619826,
          -0.009370165,
          0.004697268,
          -0.04657943,
          0.0059533413,
          0.030761857,
          -0.054802183,
          -0.0786446,
          -0.0062502315,
          0.060335893,
          0.032126963,
          0.01973098,
          -0.049495477,
          0.047982242,
          0.021699592,
          0.03247291,
          -0.03985457,
          -0.084260486,
          -0.064197704,
          0.036935303,
          -0.08192211,
          0.080749266,
          0.069075294,
          0.019657165,
          0.028218921,
          0.058414977,
          0.0038858189,
          0.0046945564,
          0.008876134,
          -0.06688733,
          0.0067829182
        ],
        [
          0.031062908,
          -0.019993387,
          0.043821994,
          -0.016306324,
          0.019590085,
          0.0724548,
          0.10680218,
          -0.009959617,
          -0.03825566,
          0.09749173,
          -0.077501684,
          0.059852883,
          0.06919554,
          0.022019617,
          0.017671438,
          -0.01150753,
          0.0038578736,
          0.05368064,
          -0.040728047,
          0.05164429,
          -0.042107686,
          -0.001450054,
          0.006556072,
          0.009807763,
          0.04299877,
          -0.051972594,
          -0.026646566,
          -0.0060347524,
          0.048779435,
          -0.008426249,
          -0.016414272,
          -0.082107805,
          -0.08055473,
          -0.091359586,
          -0.011173861,
          -0.08208294,
          -0.09413921,
          -0.09917169,
          0.025615817,
          -0.081035584,
          -0.0923083,
          -0.0855877,
          0.001968865,
          0.0001469253,
          0.047043,
          0.06432186,
          -0.039986596,
          -0.0659143,
          -0.097528525,
          -0.10661209,
          -0.030318351,
          -0.02174215,
          0.015412806,
          -0.07337173,
          -0.115524516,
          -0.020775544,
          0.023823855,
          -0.064779654,
          -0.085999854,
          0.05717148,
          0.087889165,
          0.06970454,
          -0.020680936,
          0.03631001,
          -0.0076942323,
          -0.009176779,
          0.03158398,
          0.032968096,
          -0.024599925,
          -0.017591057,
          0.024737868,
          -0.08488541,
          -0.026927968,
          -0.0022751887,
          0.047381334,
          0.020453671,
          0.07106709,
          -0.05792684,
          -0.01744085,
          0.07552516,
          0.025782946,
          0.031628523,
          0.04783653,
          0.07117783,
          0.050272625,
          0.025844628,
          -0.021139428,
          -0.061413858,
          -0.034545917,
          0.05774945,
          0.064993784,
          0.043627832,
          -0.036701236,
          0.083823346,
          0.0738039,
          -0.02974676,
          -0.047399215,
          0.00048041955,
          0.07162651,
          0.054842457,
          0.07411585,
          -0.0021350032,
          -0.059174996,
          0.008190214,
          0.07042822,
          0.0180403,
          -0.0012938039,
          0.016555957,
          -0.001946,
          0.033281244,
          -0.030308448,
          -0.013284073,
          0.081704676,
          0.08667435,
          0.05339112,
          -0.06528998,
          0.079560235,
          0.06347853,
          -0.08543338,
          -0.06323352
        ],
        [
          0.065416835,
          -0.018970473,
          0.028636042,
          0.059385862,
          0.07252971,
          -0.019481407,
          -0.031145021,
          0.073659286,
          -0.08181327,
          0.11509617,
          -0.03762385,
          -0.035739914,
          -0.01060108,
          0.027648564,
          0.005435992,
          -0.06575018,
          0.012436762,
          -0.01535442,
          0.08663095,
          -0.039071348,
          -0.02344956,
          0.031281225,
          0.02122451,
          -0.07600821,
          -0.032910604,
          0.049972236,
          -0.032586697,
          0.060928017,
          -0.07904956,
          -0.017675916,
          0.02140347,
          -0.087899074,
          0.009716515,
          -0.0044359337,
          -0.14561887,
          -0.033927284,
          0.021390906,
          -0.0074150437,
          -0.07181189,
          -0.06943426,
          0.07972838,
          -0.16607,
          0.097464874,
          -0.031367797,
          0.081077866,
          -0.011952543,
          0.012996564,
          -0.024406992,
          -0.0050410214,
          0.02178136,
          0.011361794,
          -0.07227271,
          -0.07001249,
          0.021894814,
          0.06491488,
          -0.050912973,
          0.056841336,
          -0.013161891,
          -0.10607169,
          0.04656044,
          0.04496953,
          0.009306059,
          -0.06572544,
          0.034534283,
          0.07994295,
          0.057596173,
          0.07902605,
          -0.028037535,
          0.023930807,
          0.04984214,
          0.0766512,
          -0.0724123,
          -0.021035263,
          0.01146249,
          0.043476626,
          0.036760207,
          -0.031032989,
          -0.037000272,
          -0.02405271,
          0.06628964,
          0.085104406,
          -0.08005884,
          -0.06449057,
          -0.091027975,
          0.078892395,
          -0.038276434,
          -0.07568203,
          0.01317894,
          0.0066910503,
          -0.07028219,
          -0.08410413,
          0.072263055,
          -0.0062638046,
          0.03431751,
          0.05819068,
          -0.03135544,
          -0.0714162,
          0.0024480645,
          -0.05046784,
          0.061876964,
          -0.048455186,
          0.06540495,
          0.064877115,
          0.0060318676,
          0.04352602,
          -0.0042331046,
          -0.028605383,
          -0.090013616,
          -0.033778936,
          0.07150752,
          0.085230246,
          0.02655511,
          0.0048695216,
          0.008168264,
          -0.010343064,
          -0.05986309,
          0.022505045,
          -0.08639881,
          -0.0028644854,
          -0.07067638
        ],
        [
          -0.03753615,
          0.01904299,
          0.02688784,
          -0.040503882,
          -0.05637584,
          -0.04088679,
          0.035121728,
          -0.012987226,
          0.053530052,
          0.073202476,
          0.08955489,
          -0.07974758,
          -0.017605143,
          0.05556835,
          0.09630641,
          0.037449513,
          0.009355635,
          -0.10559295,
          0.01313035,
          0.03106807,
          0.040597204,
          0.09856325,
          -0.08812571,
          -0.064121984,
          -0.031767976,
          -0.0028854643,
          -0.03771228,
          0.08076866,
          0.12721562,
          0.036997646,
          -0.046617758,
          -0.11209366,
          -0.012343574,
          0.046629805,
          0.036055595,
          0.053887535,
          0.049163084,
          -0.056968015,
          -0.0055904165,
          0.024173792,
          0.07524944,
          0.028933866,
          0.06537342,
          0.08728255,
          -0.024867238,
          -0.020260988,
          0.046828166,
          0.06022604,
          0.046801284,
          0.025242502,
          0.025078725,
          0.099427775,
          0.069443986,
          -0.025627805,
          0.040053293,
          -0.020520609,
          0.023413042,
          -0.034546006,
          0.052868087,
          0.075286195,
          -0.08003704,
          0.047875367,
          0.058543224,
          0.08491431,
          0.031241884,
          -0.085239746,
          -0.037390247,
          -0.08668599,
          0.053002212,
          0.05420358,
          -0.072188176,
          0.06324137,
          0.07955775,
          0.061448116,
          0.017048815,
          0.005664863,
          -0.040139273,
          -0.022038728,
          0.0072542294,
          0.0034894976,
          0.03371414,
          0.07811786,
          -0.03651567,
          0.039814208,
          0.04957973,
          -0.0045007216,
          0.0100185545,
          0.07258676,
          -0.0519619,
          -0.013236757,
          0.0022179596,
          0.0830558,
          -0.050203543,
          0.06908768,
          0.04330229,
          0.03755544,
          -0.06843383,
          -0.077820055,
          -0.019055974,
          -0.045136366,
          -0.0595706,
          -0.04842968,
          -0.088795856,
          0.011668644,
          0.012176226,
          0.0011682551,
          0.032072563,
          0.004867922,
          0.08658589,
          0.089962624,
          0.06386258,
          -0.07042079,
          -0.04203158,
          -0.037797943,
          -0.09051183,
          -0.0907416,
          0.036289614,
          0.07739173,
          0.044493236,
          0.015618733
        ],
        [
          0.092158444,
          0.11594787,
          0.06349146,
          0.030879168,
          -0.04298701,
          0.06354187,
          0.07922569,
          -0.03506609,
          -0.017589029,
          0.088694006,
          0.024698034,
          0.019645318,
          -0.01773366,
          0.053369235,
          0.050647702,
          0.013616771,
          0.09973709,
          0.10791389,
          0.023283767,
          0.025809577,
          0.09427774,
          -0.045315232,
          0.04483522,
